digraph Tree {
node [shape=box, style="filled, rounded", color="black", fontname="helvetica"] ;
edge [fontname="helvetica"] ;
0 [label=<OverTime_Yes &le; 0.5<br/>gini = 0.28<br/>samples = 1176<br/>value = [978, 198]<br/>class = y<SUB>0</SUB>>, fillcolor="#ea9b61"] ;
1 [label=<YearsAtCompany &le; 1.5<br/>gini = 0.182<br/>samples = 837<br/>value = [752, 85]<br/>class = y<SUB>0</SUB>>, fillcolor="#e88f4f"] ;
0 -> 1 [labeldistance=2.5, labelangle=45, headlabel="True"] ;
2 [label=<Age &le; 32.5<br/>gini = 0.39<br/>samples = 113<br/>value = [83, 30]<br/>class = y<SUB>0</SUB>>, fillcolor="#eeaf81"] ;
1 -> 2 ;
3 [label=<BusinessTravel_Travel_Frequently &le; 0.5<br/>gini = 0.499<br/>samples = 55<br/>value = [29, 26]<br/>class = y<SUB>0</SUB>>, fillcolor="#fcf2eb"] ;
2 -> 3 ;
4 [label=<WorkLifeBalance &le; 2.5<br/>gini = 0.47<br/>samples = 45<br/>value = [28, 17]<br/>class = y<SUB>0</SUB>>, fillcolor="#f5ceb1"] ;
3 -> 4 ;
5 [label=<gini = 0.346<br/>samples = 9<br/>value = [2, 7]<br/>class = y<SUB>1</SUB>>, fillcolor="#72b9ec"] ;
4 -> 5 ;
6 [label=<gini = 0.401<br/>samples = 36<br/>value = [26, 10]<br/>class = y<SUB>0</SUB>>, fillcolor="#efb185"] ;
4 -> 6 ;
7 [label=<Department_Research & Development &le; 0.5<br/>gini = 0.18<br/>samples = 10<br/>value = [1, 9]<br/>class = y<SUB>1</SUB>>, fillcolor="#4fa8e8"] ;
3 -> 7 ;
8 [label=<gini = 0.0<br/>samples = 7<br/>value = [0, 7]<br/>class = y<SUB>1</SUB>>, fillcolor="#399de5"] ;
7 -> 8 ;
9 [label=<gini = 0.444<br/>samples = 3<br/>value = [1, 2]<br/>class = y<SUB>1</SUB>>, fillcolor="#9ccef2"] ;
7 -> 9 ;
10 [label=<BusinessTravel_Travel_Frequently &le; 0.5<br/>gini = 0.128<br/>samples = 58<br/>value = [54, 4]<br/>class = y<SUB>0</SUB>>, fillcolor="#e78a48"] ;
2 -> 10 ;
11 [label=<MonthlyIncome &le; 2131.5<br/>gini = 0.074<br/>samples = 52<br/>value = [50, 2]<br/>class = y<SUB>0</SUB>>, fillcolor="#e68641"] ;
10 -> 11 ;
12 [label=<gini = 0.32<br/>samples = 5<br/>value = [4, 1]<br/>class = y<SUB>0</SUB>>, fillcolor="#eca06a"] ;
11 -> 12 ;
13 [label=<gini = 0.042<br/>samples = 47<br/>value = [46, 1]<br/>class = y<SUB>0</SUB>>, fillcolor="#e6843d"] ;
11 -> 13 ;
14 [label=<DistanceFromHome &le; 7.0<br/>gini = 0.444<br/>samples = 6<br/>value = [4, 2]<br/>class = y<SUB>0</SUB>>, fillcolor="#f2c09c"] ;
10 -> 14 ;
15 [label=<gini = 0.0<br/>samples = 3<br/>value = [3, 0]<br/>class = y<SUB>0</SUB>>, fillcolor="#e58139"] ;
14 -> 15 ;
16 [label=<gini = 0.444<br/>samples = 3<br/>value = [1, 2]<br/>class = y<SUB>1</SUB>>, fillcolor="#9ccef2"] ;
14 -> 16 ;
17 [label=<YearsAtCompany &le; 31.5<br/>gini = 0.14<br/>samples = 724<br/>value = [669, 55]<br/>class = y<SUB>0</SUB>>, fillcolor="#e78b49"] ;
1 -> 17 ;
18 [label=<JobSatisfaction &le; 1.5<br/>gini = 0.135<br/>samples = 717<br/>value = [665, 52]<br/>class = y<SUB>0</SUB>>, fillcolor="#e78b48"] ;
17 -> 18 ;
19 [label=<MonthlyIncome &le; 2040.0<br/>gini = 0.243<br/>samples = 134<br/>value = [115, 19]<br/>class = y<SUB>0</SUB>>, fillcolor="#e9965a"] ;
18 -> 19 ;
20 [label=<gini = 0.0<br/>samples = 1<br/>value = [0, 1]<br/>class = y<SUB>1</SUB>>, fillcolor="#399de5"] ;
19 -> 20 ;
21 [label=<gini = 0.234<br/>samples = 133<br/>value = [115, 18]<br/>class = y<SUB>0</SUB>>, fillcolor="#e99558"] ;
19 -> 21 ;
22 [label=<JobInvolvement &le; 1.5<br/>gini = 0.107<br/>samples = 583<br/>value = [550, 33]<br/>class = y<SUB>0</SUB>>, fillcolor="#e78945"] ;
18 -> 22 ;
23 [label=<gini = 0.284<br/>samples = 35<br/>value = [29, 6]<br/>class = y<SUB>0</SUB>>, fillcolor="#ea9b62"] ;
22 -> 23 ;
24 [label=<gini = 0.094<br/>samples = 548<br/>value = [521, 27]<br/>class = y<SUB>0</SUB>>, fillcolor="#e68843"] ;
22 -> 24 ;
25 [label=<JobSatisfaction &le; 3.5<br/>gini = 0.49<br/>samples = 7<br/>value = [4, 3]<br/>class = y<SUB>0</SUB>>, fillcolor="#f8e0ce"] ;
17 -> 25 ;
26 [label=<gini = 0.0<br/>samples = 4<br/>value = [4, 0]<br/>class = y<SUB>0</SUB>>, fillcolor="#e58139"] ;
25 -> 26 ;
27 [label=<gini = 0.0<br/>samples = 3<br/>value = [0, 3]<br/>class = y<SUB>1</SUB>>, fillcolor="#399de5"] ;
25 -> 27 ;
28 [label=<MonthlyIncome &le; 2475.0<br/>gini = 0.444<br/>samples = 339<br/>value = [226, 113]<br/>class = y<SUB>0</SUB>>, fillcolor="#f2c09c"] ;
0 -> 28 [labeldistance=2.5, labelangle=-45, headlabel="False"] ;
29 [label=<DistanceFromHome &le; 15.5<br/>gini = 0.379<br/>samples = 63<br/>value = [16, 47]<br/>class = y<SUB>1</SUB>>, fillcolor="#7cbeee"] ;
28 -> 29 ;
30 [label=<YearsAtCompany &le; 3.5<br/>gini = 0.454<br/>samples = 46<br/>value = [16, 30]<br/>class = y<SUB>1</SUB>>, fillcolor="#a3d1f3"] ;
29 -> 30 ;
31 [label=<Education &le; 3.5<br/>gini = 0.302<br/>samples = 27<br/>value = [5, 22]<br/>class = y<SUB>1</SUB>>, fillcolor="#66b3eb"] ;
30 -> 31 ;
32 [label=<gini = 0.219<br/>samples = 24<br/>value = [3, 21]<br/>class = y<SUB>1</SUB>>, fillcolor="#55abe9"] ;
31 -> 32 ;
33 [label=<gini = 0.444<br/>samples = 3<br/>value = [2, 1]<br/>class = y<SUB>0</SUB>>, fillcolor="#f2c09c"] ;
31 -> 33 ;
34 [label=<EnvironmentSatisfaction &le; 1.5<br/>gini = 0.488<br/>samples = 19<br/>value = [11, 8]<br/>class = y<SUB>0</SUB>>, fillcolor="#f8ddc9"] ;
30 -> 34 ;
35 [label=<gini = 0.0<br/>samples = 4<br/>value = [0, 4]<br/>class = y<SUB>1</SUB>>, fillcolor="#399de5"] ;
34 -> 35 ;
36 [label=<gini = 0.391<br/>samples = 15<br/>value = [11, 4]<br/>class = y<SUB>0</SUB>>, fillcolor="#eeaf81"] ;
34 -> 36 ;
37 [label=<gini = 0.0<br/>samples = 17<br/>value = [0, 17]<br/>class = y<SUB>1</SUB>>, fillcolor="#399de5"] ;
29 -> 37 ;
38 [label=<MonthlyIncome &le; 3924.0<br/>gini = 0.364<br/>samples = 276<br/>value = [210, 66]<br/>class = y<SUB>0</SUB>>, fillcolor="#eda977"] ;
28 -> 38 ;
39 [label=<Department_Sales &le; 0.5<br/>gini = 0.482<br/>samples = 64<br/>value = [38, 26]<br/>class = y<SUB>0</SUB>>, fillcolor="#f7d7c0"] ;
38 -> 39 ;
40 [label=<JobInvolvement &le; 1.5<br/>gini = 0.462<br/>samples = 58<br/>value = [37, 21]<br/>class = y<SUB>0</SUB>>, fillcolor="#f4c9a9"] ;
39 -> 40 ;
41 [label=<gini = 0.0<br/>samples = 3<br/>value = [0, 3]<br/>class = y<SUB>1</SUB>>, fillcolor="#399de5"] ;
40 -> 41 ;
42 [label=<gini = 0.44<br/>samples = 55<br/>value = [37, 18]<br/>class = y<SUB>0</SUB>>, fillcolor="#f2be99"] ;
40 -> 42 ;
43 [label=<JobSatisfaction &le; 3.5<br/>gini = 0.278<br/>samples = 6<br/>value = [1, 5]<br/>class = y<SUB>1</SUB>>, fillcolor="#61b1ea"] ;
39 -> 43 ;
44 [label=<gini = 0.0<br/>samples = 5<br/>value = [0, 5]<br/>class = y<SUB>1</SUB>>, fillcolor="#399de5"] ;
43 -> 44 ;
45 [label=<gini = 0.0<br/>samples = 1<br/>value = [1, 0]<br/>class = y<SUB>0</SUB>>, fillcolor="#e58139"] ;
43 -> 45 ;
46 [label=<Department_Sales &le; 0.5<br/>gini = 0.306<br/>samples = 212<br/>value = [172, 40]<br/>class = y<SUB>0</SUB>>, fillcolor="#eb9e67"] ;
38 -> 46 ;
47 [label=<Age &le; 24.0<br/>gini = 0.185<br/>samples = 126<br/>value = [113, 13]<br/>class = y<SUB>0</SUB>>, fillcolor="#e88f50"] ;
46 -> 47 ;
48 [label=<gini = 0.0<br/>samples = 2<br/>value = [0, 2]<br/>class = y<SUB>1</SUB>>, fillcolor="#399de5"] ;
47 -> 48 ;
49 [label=<gini = 0.162<br/>samples = 124<br/>value = [113, 11]<br/>class = y<SUB>0</SUB>>, fillcolor="#e88d4c"] ;
47 -> 49 ;
50 [label=<DistanceFromHome &le; 11.0<br/>gini = 0.431<br/>samples = 86<br/>value = [59, 27]<br/>class = y<SUB>0</SUB>>, fillcolor="#f1bb94"] ;
46 -> 50 ;
51 [label=<gini = 0.296<br/>samples = 61<br/>value = [50, 11]<br/>class = y<SUB>0</SUB>>, fillcolor="#eb9d65"] ;
50 -> 51 ;
52 [label=<gini = 0.461<br/>samples = 25<br/>value = [9, 16]<br/>class = y<SUB>1</SUB>>, fillcolor="#a8d4f4"] ;
50 -> 52 ;
}
